<?xml version="1.0"?>
<opencv_storage>
<cascade>
  <stageType>BOOST</stageType>
  <featureType>HAAR</featureType>
  <height>51</height>
  <width>38</width>
  <stageParams>
    <boostType>GAB</boostType>
    <minHitRate>9.9500000476837158e-01</minHitRate>
    <maxFalseAlarm>5.0000000000000000e-01</maxFalseAlarm>
    <weightTrimRate>9.4999998807907104e-01</weightTrimRate>
    <maxDepth>1</maxDepth>
    <maxWeakCount>100</maxWeakCount></stageParams>
  <featureParams>
    <maxCatCount>0</maxCatCount>
    <featSize>1</featSize>
    <mode>BASIC</mode></featureParams>
  <stageNum>3</stageNum>
  <stages>
    <!-- stage 0 -->
    <_>
      <maxWeakCount>2</maxWeakCount>
      <stageThreshold>-2.2777451574802399e-01</stageThreshold>
      <weakClassifiers>
        <_>
          <internalNodes>
            0 -1 3 1.5635421499609947e-02</internalNodes>
          <leafValues>
            -9.1769546270370483e-01 6.6666668653488159e-01</leafValues></_>
        <_>
          <internalNodes>
            0 -1 6 -1.5957981348037720e-02</internalNodes>
          <leafValues>
            6.8992096185684204e-01 -8.5389751195907593e-01</leafValues></_></weakClassifiers></_>
    <!-- stage 1 -->
    <_>
      <maxWeakCount>3</maxWeakCount>
      <stageThreshold>-8.9689117670059204e-01</stageThreshold>
      <weakClassifiers>
        <_>
          <internalNodes>
            0 -1 5 -6.9328799145296216e-04</internalNodes>
          <leafValues>
            1. -8.4328359365463257e-01</leafValues></_>
        <_>
          <internalNodes>
            0 -1 4 6.2135266489349306e-05</internalNodes>
          <leafValues>
            -8.1175106763839722e-01 8.1776905059814453e-01</leafValues></_>
        <_>
          <internalNodes>
            0 -1 2 2.8922194615006447e-03</internalNodes>
          <leafValues>
            -8.5201728343963623e-01 7.5814342498779297e-01</leafValues></_></weakClassifiers></_>
    <!-- stage 2 -->
    <_>
      <maxWeakCount>2</maxWeakCount>
      <stageThreshold>5.5118110030889511e-02</stageThreshold>
      <weakClassifiers>
        <_>
          <internalNodes>
            0 -1 0 -2.7204235084354877e-03</internalNodes>
          <leafValues>
            -9.4488191604614258e-01 1.</leafValues></_>
        <_>
          <internalNodes>
            0 -1 1 1.6405258793383837e-04</internalNodes>
          <leafValues>
            1. -9.4051963090896606e-01</leafValues></_></weakClassifiers></_></stages>
  <features>
    <_>
      <rects>
        <_>
          0 0 38 4 -1.</_>
        <_>
          0 0 19 2 2.</_>
        <_>
          19 2 19 2 2.</_></rects>
      <tilted>0</tilted></_>
    <_>
      <rects>
        <_>
          0 20 2 6 -1.</_>
        <_>
          1 20 1 6 2.</_></rects>
      <tilted>0</tilted></_>
    <_>
      <rects>
        <_>
          3 5 6 24 -1.</_>
        <_>
          3 13 6 8 3.</_></rects>
      <tilted>0</tilted></_>
    <_>
      <rects>
        <_>
          12 17 15 7 -1.</_>
        <_>
          17 17 5 7 3.</_></rects>
      <tilted>0</tilted></_>
    <_>
      <rects>
        <_>
          15 49 4 2 -1.</_>
        <_>
          15 50 4 1 2.</_></rects>
      <tilted>0</tilted></_>
    <_>
      <rects>
        <_>
          16 32 3 9 -1.</_>
        <_>
          17 32 1 9 3.</_></rects>
      <tilted>0</tilted></_>
    <_>
      <rects>
        <_>
          17 25 11 12 -1.</_>
        <_>
          17 31 11 6 2.</_></rects>
      <tilted>0</tilted></_></features></cascade>
</opencv_storage>
